digraph Tree {
node [shape=box, style="filled, rounded", color="black", fontname="helvetica"] ;
edge [fontname="helvetica"] ;
0 [label="x[0] <= 0.75\ngini = 0.665\nsamples = 105\nvalue = [34, 33, 38]", fillcolor="#f8f4fe"] ;
1 [label="gini = 0.0\nsamples = 34\nvalue = [34, 0, 0]", fillcolor="#e58139"] ;
0 -> 1 [labeldistance=2.5, labelangle=45, headlabel="True"] ;
2 [label="x[0] <= 1.75\ngini = 0.498\nsamples = 71\nvalue = [0, 33, 38]", fillcolor="#eee5fc"] ;
0 -> 2 [labeldistance=2.5, labelangle=-45, headlabel="False"] ;
3 [label="gini = 0.198\nsamples = 36\nvalue = [0, 32, 4]", fillcolor="#52e891"] ;
2 -> 3 ;
4 [label="gini = 0.056\nsamples = 35\nvalue = [0, 1, 34]", fillcolor="#853fe6"] ;
2 -> 4 ;
}